11 12
</s> 0.033356 0.036828 -0.031919 -0.027317 0.011388 0.025176 0.007840 0.001761 -0.030029 0.018487 -0.036303 0.010413 
1 -0.006261 -0.007977 -0.027631 -0.015685 0.021495 0.025211 0.024742 0.013312 0.012873 -0.031689 -0.034131 0.041414 
2 0.031677 0.025750 -0.005033 0.033464 -0.004125 0.006123 -0.001244 -0.024860 0.010935 -0.011145 -0.031878 0.039618 
3 0.036494 -0.009126 -0.001884 0.004243 -0.030314 -0.033393 0.037956 0.000525 -0.021520 -0.025351 -0.025637 0.014141 
4 0.001678 0.011092 -0.035113 -0.031732 -0.001083 0.009530 0.021248 -0.026417 0.033997 0.007725 0.009331 -0.005070 
5 0.024887 -0.019065 -0.017479 0.017986 -0.006276 0.008589 0.015038 -0.034072 -0.016525 0.024281 0.035266 0.032767 
6 -0.025391 -0.017564 -0.007576 0.016679 -0.031570 0.024982 0.023232 -0.013325 -0.012929 -0.018653 0.035240 0.032599 
7 -0.009832 0.035124 0.040169 0.015128 0.041524 -0.025926 -0.012764 -0.017562 -0.024226 0.023457 0.013161 0.003541 
8 -0.018280 0.012699 0.025495 0.001614 0.018997 -0.041271 0.035957 0.003999 -0.015259 -0.017361 -0.006233 -0.024459 
9 -0.036413 -0.023642 0.035642 -0.014749 -0.022329 0.019311 -0.014198 0.039639 -0.013372 -0.038240 0.022631 -0.000619 
10 -0.029073 0.008132 0.012016 -0.004012 0.015203 -0.032981 0.007342 0.015138 -0.025075 0.001184 -0.000506 -0.019993 
